<?xml version="1.0" encoding="UTF-8" standalone="yes"?>
<PMML xmlns="http://www.dmg.org/PMML-4_4" xmlns:data="http://jpmml.org/jpmml-model/InlineTable" version="4.4">
	<Header>
		<Application name="SkLearn2PMML package" version="0.110.0"/>
		<Timestamp>2024-08-25T04:56:29Z</Timestamp>
	</Header>
	<MiningBuildTask>
		<Extension name="repr">PMMLPipeline(steps=[('classifier', RandomForestClassifier(random_state=42))])</Extension>
	</MiningBuildTask>
	<DataDictionary>
		<DataField name="target" optype="categorical" dataType="integer">
			<Value value="0"/>
			<Value value="1"/>
			<Value value="10"/>
			<Value value="2"/>
			<Value value="3"/>
			<Value value="4"/>
			<Value value="5"/>
			<Value value="6"/>
			<Value value="7"/>
			<Value value="8"/>
			<Value value="9"/>
		</DataField>
		<DataField name="feature_0" optype="continuous" dataType="float"/>
		<DataField name="feature_1" optype="continuous" dataType="float"/>
		<DataField name="feature_2" optype="continuous" dataType="float"/>
		<DataField name="feature_3" optype="continuous" dataType="float"/>
		<DataField name="feature_4" optype="continuous" dataType="float"/>
		<DataField name="feature_5" optype="continuous" dataType="float"/>
		<DataField name="feature_6" optype="continuous" dataType="float"/>
		<DataField name="feature_7" optype="continuous" dataType="float"/>
		<DataField name="feature_8" optype="continuous" dataType="float"/>
		<DataField name="feature_9" optype="continuous" dataType="float"/>
		<DataField name="feature_10" optype="continuous" dataType="float"/>
		<DataField name="feature_11" optype="continuous" dataType="float"/>
		<DataField name="feature_12" optype="continuous" dataType="float"/>
		<DataField name="feature_13" optype="continuous" dataType="float"/>
		<DataField name="feature_14" optype="continuous" dataType="float"/>
		<DataField name="feature_15" optype="continuous" dataType="float"/>
		<DataField name="feature_16" optype="continuous" dataType="float"/>
		<DataField name="feature_17" optype="continuous" dataType="float"/>
		<DataField name="feature_18" optype="continuous" dataType="float"/>
		<DataField name="feature_19" optype="continuous" dataType="float"/>
		<DataField name="feature_20" optype="continuous" dataType="float"/>
		<DataField name="feature_21" optype="continuous" dataType="float"/>
		<DataField name="feature_22" optype="continuous" dataType="float"/>
		<DataField name="feature_23" optype="continuous" dataType="float"/>
		<DataField name="feature_24" optype="continuous" dataType="float"/>
		<DataField name="feature_25" optype="continuous" dataType="float"/>
		<DataField name="feature_26" optype="continuous" dataType="float"/>
		<DataField name="feature_27" optype="continuous" dataType="float"/>
		<DataField name="feature_28" optype="continuous" dataType="float"/>
		<DataField name="feature_29" optype="continuous" dataType="float"/>
		<DataField name="feature_30" optype="continuous" dataType="float"/>
		<DataField name="feature_31" optype="continuous" dataType="float"/>
		<DataField name="feature_32" optype="continuous" dataType="float"/>
		<DataField name="feature_33" optype="continuous" dataType="float"/>
		<DataField name="feature_34" optype="continuous" dataType="float"/>
		<DataField name="feature_35" optype="continuous" dataType="float"/>
		<DataField name="feature_36" optype="continuous" dataType="float"/>
		<DataField name="feature_37" optype="continuous" dataType="float"/>
		<DataField name="feature_38" optype="continuous" dataType="float"/>
		<DataField name="feature_39" optype="continuous" dataType="float"/>
		<DataField name="feature_40" optype="continuous" dataType="float"/>
		<DataField name="feature_41" optype="continuous" dataType="float"/>
	</DataDictionary>
	<MiningModel functionName="classification" algorithmName="sklearn.ensemble._forest.RandomForestClassifier">
		<MiningSchema>
			<MiningField name="target" usageType="target"/>
			<MiningField name="feature_27"/>
			<MiningField name="feature_29"/>
			<MiningField name="feature_40"/>
			<MiningField name="feature_7"/>
			<MiningField name="feature_6"/>
			<MiningField name="feature_8"/>
			<MiningField name="feature_17"/>
			<MiningField name="feature_38"/>
			<MiningField name="feature_39"/>
			<MiningField name="feature_28"/>
			<MiningField name="feature_34"/>
			<MiningField name="feature_33"/>
			<MiningField name="feature_9"/>
			<MiningField name="feature_37"/>
			<MiningField name="feature_31"/>
			<MiningField name="feature_41"/>
			<MiningField name="feature_1"/>
			<MiningField name="feature_14"/>
			<MiningField name="feature_13"/>
			<MiningField name="feature_25"/>
			<MiningField name="feature_5"/>
			<MiningField name="feature_3"/>
			<MiningField name="feature_35"/>
			<MiningField name="feature_23"/>
			<MiningField name="feature_15"/>
			<MiningField name="feature_26"/>
			<MiningField name="feature_4"/>
			<MiningField name="feature_36"/>
			<MiningField name="feature_12"/>
			<MiningField name="feature_20"/>
			<MiningField name="feature_21"/>
			<MiningField name="feature_16"/>
			<MiningField name="feature_2"/>
			<MiningField name="feature_24"/>
			<MiningField name="feature_22"/>
			<MiningField name="feature_32"/>
			<MiningField name="feature_30"/>
			<MiningField name="feature_18"/>
			<MiningField name="feature_19"/>
			<MiningField name="feature_11"/>
			<MiningField name="feature_10"/>
			<MiningField name="feature_0"/>
		</MiningSchema>
		<Output>
			<OutputField name="probability(0)" optype="continuous" dataType="double" feature="probability" value="0"/>
			<OutputField name="probability(1)" optype="continuous" dataType="double" feature="probability" value="1"/>
			<OutputField name="probability(10)" optype="continuous" dataType="double" feature="probability" value="10"/>
			<OutputField name="probability(2)" optype="continuous" dataType="double" feature="probability" value="2"/>
			<OutputField name="probability(3)" optype="continuous" dataType="double" feature="probability" value="3"/>
			<OutputField name="probability(4)" optype="continuous" dataType="double" feature="probability" value="4"/>
			<OutputField name="probability(5)" optype="continuous" dataType="double" feature="probability" value="5"/>
			<OutputField name="probability(6)" optype="continuous" dataType="double" feature="probability" value="6"/>
			<OutputField name="probability(7)" optype="continuous" dataType="double" feature="probability" value="7"/>
			<OutputField name="probability(8)" optype="continuous" dataType="double" feature="probability" value="8"/>
			<OutputField name="probability(9)" optype="continuous" dataType="double" feature="probability" value="9"/>
		</Output>
		<LocalTransformations>
			<DerivedField name="double(feature_27)" optype="continuous" dataType="double">
				<FieldRef field="feature_27"/>
			</DerivedField>
			<DerivedField name="double(feature_29)" optype="continuous" dataType="double">
				<FieldRef field="feature_29"/>
			</DerivedField>
			<DerivedField name="double(feature_40)" optype="continuous" dataType="double">
				<FieldRef field="feature_40"/>
			</DerivedField>
			<DerivedField name="double(feature_7)" optype="continuous" dataType="double">
				<FieldRef field="feature_7"/>
			</DerivedField>
			<DerivedField name="double(feature_6)" optype="continuous" dataType="double">
				<FieldRef field="feature_6"/>
			</DerivedField>
			<DerivedField name="double(feature_8)" optype="continuous" dataType="double">
				<FieldRef field="feature_8"/>
			</DerivedField>
			<DerivedField name="double(feature_17)" optype="continuous" dataType="double">
				<FieldRef field="feature_17"/>
			</DerivedField>
			<DerivedField name="double(feature_38)" optype="continuous" dataType="double">
				<FieldRef field="feature_38"/>
			</DerivedField>
			<DerivedField name="double(feature_39)" optype="continuous" dataType="double">
				<FieldRef field="feature_39"/>
			</DerivedField>
			<DerivedField name="double(feature_28)" optype="continuous" dataType="double">
				<FieldRef field="feature_28"/>
			</DerivedField>
			<DerivedField name="double(feature_34)" optype="continuous" dataType="double">
				<FieldRef field="feature_34"/>
			</DerivedField>
			<DerivedField name="double(feature_33)" optype="continuous" dataType="double">
				<FieldRef field="feature_33"/>
			</DerivedField>
			<DerivedField name="double(feature_9)" optype="continuous" dataType="double">
				<FieldRef field="feature_9"/>
			</DerivedField>
			<DerivedField name="double(feature_37)" optype="continuous" dataType="double">
				<FieldRef field="feature_37"/>
			</DerivedField>
			<DerivedField name="double(feature_31)" optype="continuous" dataType="double">
				<FieldRef field="feature_31"/>
			</DerivedField>
			<DerivedField name="double(feature_41)" optype="continuous" dataType="double">
				<FieldRef field="feature_41"/>
			</DerivedField>
			<DerivedField name="double(feature_1)" optype="continuous" dataType="double">
				<FieldRef field="feature_1"/>
			</DerivedField>
			<DerivedField name="double(feature_14)" optype="continuous" dataType="double">
				<FieldRef field="feature_14"/>
			</DerivedField>
			<DerivedField name="double(feature_13)" optype="continuous" dataType="double">
				<FieldRef field="feature_13"/>
			</DerivedField>
			<DerivedField name="double(feature_25)" optype="continuous" dataType="double">
				<FieldRef field="feature_25"/>
			</DerivedField>
			<DerivedField name="double(feature_5)" optype="continuous" dataType="double">
				<FieldRef field="feature_5"/>
			</DerivedField>
			<DerivedField name="double(feature_3)" optype="continuous" dataType="double">
				<FieldRef field="feature_3"/>
			</DerivedField>
			<DerivedField name="double(feature_35)" optype="continuous" dataType="double">
				<FieldRef field="feature_35"/>
			</DerivedField>
			<DerivedField name="double(feature_23)" optype="continuous" dataType="double">
				<FieldRef field="feature_23"/>
			</DerivedField>
			<DerivedField name="double(feature_15)" optype="continuous" dataType="double">
				<FieldRef field="feature_15"/>
			</DerivedField>
			<DerivedField name="double(feature_26)" optype="continuous" dataType="double">
				<FieldRef field="feature_26"/>
			</DerivedField>
			<DerivedField name="double(feature_4)" optype="continuous" dataType="double">
				<FieldRef field="feature_4"/>
			</DerivedField>
			<DerivedField name="double(feature_36)" optype="continuous" dataType="double">
				<FieldRef field="feature_36"/>
			</DerivedField>
			<DerivedField name="double(feature_12)" optype="continuous" dataType="double">
				<FieldRef field="feature_12"/>
			</DerivedField>
			<DerivedField name="double(feature_20)" optype="continuous" dataType="double">
				<FieldRef field="feature_20"/>
			</DerivedField>
			<DerivedField name="double(feature_21)" optype="continuous" dataType="double">
				<FieldRef field="feature_21"/>
			</DerivedField>
			<DerivedField name="double(feature_16)" optype="continuous" dataType="double">
				<FieldRef field="feature_16"/>
			</DerivedField>
			<DerivedField name="double(feature_2)" optype="continuous" dataType="double">
				<FieldRef field="feature_2"/>
			</DerivedField>
			<DerivedField name="double(feature_24)" optype="continuous" dataType="double">
				<FieldRef field="feature_24"/>
			</DerivedField>
			<DerivedField name="double(feature_22)" optype="continuous" dataType="double">
				<FieldRef field="feature_22"/>
			</DerivedField>
			<DerivedField name="double(feature_32)" optype="continuous" dataType="double">
				<FieldRef field="feature_32"/>
			</DerivedField>
			<DerivedField name="double(feature_30)" optype="continuous" dataType="double">
				<FieldRef field="feature_30"/>
			</DerivedField>
			<DerivedField name="double(feature_18)" optype="continuous" dataType="double">
				<FieldRef field="feature_18"/>
			</DerivedField>
			<DerivedField name="double(feature_19)" optype="continuous" dataType="double">
				<FieldRef field="feature_19"/>
			</DerivedField>
			<DerivedField name="double(feature_11)" optype="continuous" dataType="double">
				<FieldRef field="feature_11"/>
			</DerivedField>
			<DerivedField name="double(feature_10)" optype="continuous" dataType="double">
				<FieldRef field="feature_10"/>
			</DerivedField>
			<DerivedField name="double(feature_0)" optype="continuous" dataType="double">
				<FieldRef field="feature_0"/>
			</DerivedField>
		</LocalTransformations>
		<Segmentation multipleModelMethod="average" missingPredictionTreatment="returnMissing">
			<Segment id="1">
				<True/>
				<TreeModel functionName="classification" missingValueStrategy="nullPrediction">
					<MiningSchema>
						<MiningField name="double(feature_27)"/>
						<MiningField name="double(feature_29)"/>
						<MiningField name="double(feature_40)"/>
						<MiningField name="double(feature_7)"/>
						<MiningField name="double(feature_6)"/>
						<MiningField name="double(feature_8)"/>
						<MiningField name="double(feature_17)"/>
						<MiningField name="double(feature_38)"/>
						<MiningField name="double(feature_39)"/>
						<MiningField name="double(feature_28)"/>
						<MiningField name="double(feature_34)"/>
						<MiningField name="double(feature_33)"/>
						<MiningField name="double(feature_9)"/>
					</MiningSchema>
					<Node>
						<True/>
						<Node>
							<SimplePredicate field="double(feature_27)" operator="lessOrEqual" value="0.18930192291736603"/>
							<Node score="0" recordCount="1">
								<SimplePredicate field="double(feature_29)" operator="lessOrEqual" value="0.04985664784908295"/>
								<ScoreDistribution value="0" recordCount="1"/>
								<ScoreDistribution value="1" recordCount="0"/>
								<ScoreDistribution value="10" recordCount="0"/>
								<ScoreDistribution value="2" recordCount="0"/>
								<ScoreDistribution value="3" recordCount="0"/>
								<ScoreDistribution value="4" recordCount="0"/>
								<ScoreDistribution value="5" recordCount="0"/>
								<ScoreDistribution value="6" recordCount="0"/>
								<ScoreDistribution value="7" recordCount="0"/>
								<ScoreDistribution value="8" recordCount="0"/>
								<ScoreDistribution value="9" recordCount="0"/>
							</Node>
							<Node score="2" recordCount="1">
								<SimplePredicate field="double(feature_40)" operator="lessOrEqual" value="0.0576711967587471"/>
								<ScoreDistribution value="0" recordCount="0"/>
								<ScoreDistribution value="1" recordCount="0"/>
								<ScoreDistribution value="10" recordCount="0"/>
								<ScoreDistribution value="2" recordCount="1"/>
								<ScoreDistribution value="3" recordCount="0"/>
								<ScoreDistribution value="4" recordCount="0"/>
								<ScoreDistribution value="5" recordCount="0"/>
								<ScoreDistribution value="6" recordCount="0"/>
								<ScoreDistribution value="7" recordCount="0"/>
								<ScoreDistribution value="8" recordCount="0"/>
								<ScoreDistribution value="9" recordCount="0"/>
							</Node>
							<Node score="1" recordCount="1">
								<True/>
								<ScoreDistribution value="0" recordCount="0"/>
								<ScoreDistribution value="1" recordCount="1"/>
								<ScoreDistribution value="10" recordCount="0"/>
								<ScoreDistribution value="2" recordCount="0"/>
								<ScoreDistribution value="3" recordCount="0"/>
								<ScoreDistribution value="4" recordCount="0"/>
								<ScoreDistribution value="5" recordCount="0"/>
								<ScoreDistribution value="6" recordCount="0"/>
								<ScoreDistribution value="7" recordCount="0"/>
								<ScoreDistribution value="8" recordCount="0"/>
								<ScoreDistribution value="9" recordCount="0"/>
							</Node>
						</Node>
						<Node score="10" recordCount="1">
							<SimplePredicate field="double(feature_7)" operator="lessOrEqual" value="0.1780852973461151"/>
							<ScoreDistribution value="0" recordCount="0"/>
							<ScoreDistribution value="1" recordCount="0"/>
							<ScoreDistribution value="10" recordCount="1"/>
							<ScoreDistribution value="2" recordCount="0"/>
							<ScoreDistribution value="3" recordCount="0"/>
							<ScoreDistribution value="4" recordCount="0"/>
							<ScoreDistribution value="5" recordCount="0"/>
							<ScoreDistribution value="6" recordCount="0"/>
							<ScoreDistribution value="7" recordCount="0"/>
							<ScoreDistribution value="8" recordCount="0"/>
							<ScoreDistribution value="9" recordCount="0"/>
						</Node>
						<Node>
							<SimplePredicate field="double(feature_6)" operator="lessOrEqual" value="0.2890394777059555"/>
							<Node>
								<SimplePredicate field="double(feature_8)" operator="lessOrEqual" value="0.23547953367233276"/>
								<Node>
									<SimplePredicate field="double(feature_17)" operator="lessOrEqual" value="0.032685309648513794"/>
									<Node>
										<SimplePredicate field="double(feature_38)" operator="lessOrEqual" value="0.06574700772762299"/>
										<Node>
											<SimplePredicate field="double(feature_38)" operator="lessOrEqual" value="0.026282869279384613"/>
											<Node score="8" recordCount="1">
												<SimplePredicate field="double(feature_39)" operator="lessOrEqual" value="0.22969193756580353"/>
												<ScoreDistribution value="0" recordCount="0"/>
												<ScoreDistribution value="1" recordCount="0"/>
												<ScoreDistribution value="10" recordCount="0"/>
												<ScoreDistribution value="2" recordCount="0"/>
												<ScoreDistribution value="3" recordCount="0"/>
												<ScoreDistribution value="4" recordCount="0"/>
												<ScoreDistribution value="5" recordCount="0"/>
												<ScoreDistribution value="6" recordCount="0"/>
												<ScoreDistribution value="7" recordCount="0"/>
												<ScoreDistribution value="8" recordCount="1"/>
												<ScoreDistribution value="9" recordCount="0"/>
											</Node>
											<Node score="6" recordCount="1">
												<True/>
												<ScoreDistribution value="0" recordCount="0"/>
												<ScoreDistribution value="1" recordCount="0"/>
												<ScoreDistribution value="10" recordCount="0"/>
												<ScoreDistribution value="2" recordCount="0"/>
												<ScoreDistribution value="3" recordCount="0"/>
												<ScoreDistribution value="4" recordCount="0"/>
												<ScoreDistribution value="5" recordCount="0"/>
												<ScoreDistribution value="6" recordCount="1"/>
												<ScoreDistribution value="7" recordCount="0"/>
												<ScoreDistribution value="8" recordCount="0"/>
												<ScoreDistribution value="9" recordCount="0"/>
											</Node>
										</Node>
										<Node score="2" recordCount="1">
											<SimplePredicate field="double(feature_28)" operator="lessOrEqual" value="0.08260994404554367"/>
											<ScoreDistribution value="0" recordCount="0"/>
											<ScoreDistribution value="1" recordCount="0"/>
											<ScoreDistribution value="10" recordCount="0"/>
											<ScoreDistribution value="2" recordCount="1"/>
											<ScoreDistribution value="3" recordCount="0"/>
											<ScoreDistribution value="4" recordCount="0"/>
											<ScoreDistribution value="5" recordCount="0"/>
											<ScoreDistribution value="6" recordCount="0"/>
											<ScoreDistribution value="7" recordCount="0"/>
											<ScoreDistribution value="8" recordCount="0"/>
											<ScoreDistribution value="9" recordCount="0"/>
										</Node>
										<Node score="1" recordCount="1">
											<True/>
											<ScoreDistribution value="0" recordCount="0"/>
											<ScoreDistribution value="1" recordCount="1"/>
											<ScoreDistribution value="10" recordCount="0"/>
											<ScoreDistribution value="2" recordCount="0"/>
											<ScoreDistribution value="3" recordCount="0"/>
											<ScoreDistribution value="4" recordCount="0"/>
											<ScoreDistribution value="5" recordCount="0"/>
											<ScoreDistribution value="6" recordCount="0"/>
											<ScoreDistribution value="7" recordCount="0"/>
											<ScoreDistribution value="8" recordCount="0"/>
											<ScoreDistribution value="9" recordCount="0"/>
										</Node>
									</Node>
									<Node score="1" recordCount="1">
										<True/>
										<ScoreDistribution value="0" recordCount="0"/>
										<ScoreDistribution value="1" recordCount="1"/>
										<ScoreDistribution value="10" recordCount="0"/>
										<ScoreDistribution value="2" recordCount="0"/>
										<ScoreDistribution value="3" recordCount="0"/>
										<ScoreDistribution value="4" recordCount="0"/>
										<ScoreDistribution value="5" recordCount="0"/>
										<ScoreDistribution value="6" recordCount="0"/>
										<ScoreDistribution value="7" recordCount="0"/>
										<ScoreDistribution value="8" recordCount="0"/>
										<ScoreDistribution value="9" recordCount="0"/>
									</Node>
								</Node>
								<Node>
									<SimplePredicate field="double(feature_34)" operator="lessOrEqual" value="0.05945318937301636"/>
									<Node score="6" recordCount="1">
										<SimplePredicate field="double(feature_33)" operator="lessOrEqual" value="0.16582992672920227"/>
										<ScoreDistribution value="0" recordCount="0"/>
										<ScoreDistribution value="1" recordCount="0"/>
										<ScoreDistribution value="10" recordCount="0"/>
										<ScoreDistribution value="2" recordCount="0"/>
										<ScoreDistribution value="3" recordCount="0"/>
										<ScoreDistribution value="4" recordCount="0"/>
										<ScoreDistribution value="5" recordCount="0"/>
										<ScoreDistribution value="6" recordCount="1"/>
										<ScoreDistribution value="7" recordCount="0"/>
										<ScoreDistribution value="8" recordCount="0"/>
										<ScoreDistribution value="9" recordCount="0"/>
									</Node>
									<Node score="7" recordCount="1">
										<True/>
										<ScoreDistribution value="0" recordCount="0"/>
										<ScoreDistribution value="1" recordCount="0"/>
										<ScoreDistribution value="10" recordCount="0"/>
										<ScoreDistribution value="2" recordCount="0"/>
										<ScoreDistribution value="3" recordCount="0"/>
										<ScoreDistribution value="4" recordCount="0"/>
										<ScoreDistribution value="5" recordCount="0"/>
										<ScoreDistribution value="6" recordCount="0"/>
										<ScoreDistribution value="7" recordCount="1"/>
										<ScoreDistribution value="8" recordCount="0"/>
										<ScoreDistribution value="9" recordCount="0"/>
									</Node>
								</Node>
								<Node score="4" recordCount="1">
									<True/>
									<ScoreDistribution value="0" recordCount="0"/>
									<ScoreDistribution value="1" recordCount="0"/>
									<ScoreDistribution value="10" recordCount="0"/>
									<ScoreDistribution value="2" recordCount="0"/>
									<ScoreDistribution value="3" recordCount="0"/>
									<ScoreDistribution value="4" recordCount="1"/>
									<ScoreDistribution value="5" recordCount="0"/>
									<ScoreDistribution value="6" recordCount="0"/>
									<ScoreDistribution value="7" recordCount="0"/>
									<ScoreDistribution value="8" recordCount="0"/>
									<ScoreDistribution value="9" recordCount="0"/>
								</Node>
							</Node>
							<Node score="3" recordCount="1">
								<SimplePredicate field="double(feature_9)" operator="lessOrEqual" value="0.3844906985759735"/>
								<ScoreDistribution value="0" recordCount="0"/>
								<ScoreDistribution value="1" recordCount="0"/>
								<ScoreDistribution value="10" recordCount="0"/>
								<ScoreDistribution value="2" recordCount="0"/>
								<ScoreDistribution value="3" recordCount="1"/>
								<ScoreDistribution value="4" recordCount="0"/>
								<ScoreDistribution value="5" recordCount="0"/>
								<ScoreDistribution value="6" recordCount="0"/>
								<ScoreDistribution value="7" recordCount="0"/>
								<ScoreDistribution value="8" recordCount="0"/>
								<ScoreDistribution value="9" recordCount="0"/>
							</Node>
							<Node score="9" recordCount="1">
								<True/>
								<ScoreDistribution value="0" recordCount="0"/>
								<ScoreDistribution value="1" recordCount="0"/>
								<ScoreDistribution value="10" recordCount="0"/>
								<ScoreDistribution value="2" recordCount="0"/>
								<ScoreDistribution value="3" recordCount="0"/>
								<ScoreDistribution value="4" recordCount="0"/>
								<ScoreDistribution value="5" recordCount="0"/>
								<ScoreDistribution value="6" recordCount="0"/>
								<ScoreDistribution value="7" recordCount="0"/>
								<ScoreDistribution value="8" recordCount="0"/>
								<ScoreDistribution value="9" recordCount="1"/>
							</Node>
						</Node>
						<Node score="5" recordCount="1">
							<True/>
							<ScoreDistribution value="0" recordCount="0"/>
							<ScoreDistribution value="1" recordCount="0"/>
							<ScoreDistribution value="10" recordCount="0"/>
							<ScoreDistribution value="2" recordCount="0"/>
							<ScoreDistribution value="3" recordCount="0"/>
							<ScoreDistribution value="4" recordCount="0"/>
							<ScoreDistribution value="5" recordCount="1"/>
							<ScoreDistribution value="6" recordCount="0"/>
							<ScoreDistribution value="7" recordCount="0"/>
							<ScoreDistribution value="8" recordCount="0"/>
							<ScoreDistribution value="9" recordCount="0"/>
						</Node>
					</Node>
				</TreeModel>
			</Segment>
			<Segment id="2">
				<True/>
				<TreeModel functionName="classification" missingValueStrategy="nullPrediction">
					<MiningSchema>
						<MiningField name="double(feature_40)"/>
						<MiningField name="double(feature_6)"/>
						<MiningField name="double(feature_8)"/>
						<MiningField name="double(feature_17)"/>
						<MiningField name="double(feature_33)"/>
						<MiningField name="double(feature_37)"/>
						<MiningField name="double(feature_31)"/>
						<MiningField name="double(feature_41)"/>
						<MiningField name="double(feature_1)"/>
						<MiningField name="double(feature_14)"/>
						<MiningField name="double(feature_13)"/>
						<MiningField name="double(feature_25)"/>
					</MiningSchema>
					<Node>
						<True/>
						<Node>
							<SimplePredicate field="double(feature_8)" operator="lessOrEqual" value="0.33543112874031067"/>
							<Node>
								<SimplePredicate field="double(feature_33)" operator="lessOrEqual" value="0.037339672446250916"/>
								<Node>
									<SimplePredicate field="double(feature_17)" operator="lessOrEqual" value="0.23128026723861694"/>
									<Node score="0" recordCount="1">
										<SimplePredicate field="double(feature_37)" operator="lessOrEqual" value="0.0772770345211029"/>
										<ScoreDistribution value="0" recordCount="1"/>
										<ScoreDistribution value="1" recordCount="0"/>
										<ScoreDistribution value="10" recordCount="0"/>
										<ScoreDistribution value="2" recordCount="0"/>
										<ScoreDistribution value="3" recordCount="0"/>
										<ScoreDistribution value="4" recordCount="0"/>
										<ScoreDistribution value="5" recordCount="0"/>
										<ScoreDistribution value="6" recordCount="0"/>
										<ScoreDistribution value="7" recordCount="0"/>
										<ScoreDistribution value="8" recordCount="0"/>
										<ScoreDistribution value="9" recordCount="0"/>
									</Node>
									<Node score="8" recordCount="1">
										<True/>
										<ScoreDistribution value="0" recordCount="0"/>
										<ScoreDistribution value="1" recordCount="0"/>
										<ScoreDistribution value="10" recordCount="0"/>
										<ScoreDistribution value="2" recordCount="0"/>
										<ScoreDistribution value="3" recordCount="0"/>
										<ScoreDistribution value="4" recordCount="0"/>
										<ScoreDistribution value="5" recordCount="0"/>
										<ScoreDistribution value="6" recordCount="0"/>
										<ScoreDistribution value="7" recordCount="0"/>
										<ScoreDistribution value="8" recordCount="1"/>
										<ScoreDistribution value="9" recordCount="0"/>
									</Node>
								</Node>
								<Node score="9" recordCount="1">
									<True/>
									<ScoreDistribution value="0" recordCount="0"/>
									<ScoreDistribution value="1" recordCount="0"/>
									<ScoreDistribution value="10" recordCount="0"/>
									<ScoreDistribution value="2" recordCount="0"/>
									<ScoreDistribution value="3" recordCount="0"/>
									<ScoreDistribution value="4" recordCount="0"/>
									<ScoreDistribution value="5" recordCount="0"/>
									<ScoreDistribution value="6" recordCount="0"/>
									<ScoreDistribution value="7" recordCount="0"/>
									<ScoreDistribution value="8" recordCount="0"/>
									<ScoreDistribution value="9" recordCount="1"/>
								</Node>
							</Node>
							<Node score="0" recordCount="1">
								<SimplePredicate field="double(feature_31)" operator="lessOrEqual" value="0.058583587408065796"/>
								<ScoreDistribution value="0" recordCount="1"/>
								<ScoreDistribution value="1" recordCount="0"/>
								<ScoreDistribution value="10" recordCount="0"/>
								<ScoreDistribution value="2" recordCount="0"/>
								<ScoreDistribution value="3" recordCount="0"/>
								<ScoreDistribution value="4" recordCount="0"/>
								<ScoreDistribution value="5" recordCount="0"/>
								<ScoreDistribution value="6" recordCount="0"/>
								<ScoreDistribution value="7" recordCount="0"/>
								<ScoreDistribution value="8" recordCount="0"/>
								<ScoreDistribution value="9" recordCount="0"/>
							</Node>
							<Node>
								<SimplePredicate field="double(feature_41)" operator="lessOrEqual" value="0.14173603057861328"/>
								<Node score="8" recordCount="1">
									<SimplePredicate field="double(feature_1)" operator="lessOrEqual" value="0.46485094726085663"/>
									<ScoreDistribution value="0" recordCount="0"/>
									<ScoreDistribution value="1" recordCount="0"/>
									<ScoreDistribution value="10" recordCount="0"/>
									<ScoreDistribution value="2" recordCount="0"/>
									<ScoreDistribution value="3" recordCount="0"/>
									<ScoreDistribution value="4" recordCount="0"/>
									<ScoreDistribution value="5" recordCount="0"/>
									<ScoreDistribution value="6" recordCount="0"/>
									<ScoreDistribution value="7" recordCount="0"/>
									<ScoreDistribution value="8" recordCount="1"/>
									<ScoreDistribution value="9" recordCount="0"/>
								</Node>
								<Node score="7" recordCount="1">
									<True/>
									<ScoreDistribution value="0" recordCount="0"/>
									<ScoreDistribution value="1" recordCount="0"/>
									<ScoreDistribution value="10" recordCount="0"/>
									<ScoreDistribution value="2" recordCount="0"/>
									<ScoreDistribution value="3" recordCount="0"/>
									<ScoreDistribution value="4" recordCount="0"/>
									<ScoreDistribution value="5" recordCount="0"/>
									<ScoreDistribution value="6" recordCount="0"/>
									<ScoreDistribution value="7" recordCount="1"/>
									<ScoreDistribution value="8" recordCount="0"/>
									<ScoreDistribution value="9" recordCount="0"/>
								</Node>
							</Node>
							<Node>
								<SimplePredicate field="double(feature_14)" operator="lessOrEqual" value="0.22794145345687866"/>
								<Node>
									<SimplePredicate field="double(feature_13)" operator="lessOrEqual" value="0.20792344212532043"/>
									<Node>
										<SimplePredicate field="double(feature_25)" operator="lessOrEqual" value="0.22477900981903076"/>
										<Node score="6" recordCount="1">
											<SimplePredicate field="double(feature_33)" operator="lessOrEqual" value="0.11023470759391785"/>
											<ScoreDistribution value="0" recordCount="0"/>
											<ScoreDistribution value="1" recordCount="0"/>
											<ScoreDistribution value="10" recordCount="0"/>
											<ScoreDistribution value="2" recordCount="0"/>
											<ScoreDistribution value="3" recordCount="0"/>
											<ScoreDistribution value="4" recordCount="0"/>
											<ScoreDistribution value="5" recordCount="0"/>
											<ScoreDistribution value="6" recordCount="1"/>
											<ScoreDistribution value="7" recordCount="0"/>
											<ScoreDistribution value="8" recordCount="0"/>
											<ScoreDistribution value="9" recordCount="0"/>
										</Node>
										<Node>
											<SimplePredicate field="double(feature_6)" operator="lessOrEqual" value="0.2048536092042923"/>
											<Node score="2" recordCount="1">
												<SimplePredicate field="double(feature_40)" operator="lessOrEqual" value="0.07468195259571075"/>
												<ScoreDistribution value="0" recordCount="0"/>
												<ScoreDistribution value="1" recordCount="0"/>
												<ScoreDistribution value="10" recordCount="0"/>
												<ScoreDistribution value="2" recordCount="1"/>
												<ScoreDistribution value="3" recordCount="0"/>
												<ScoreDistribution value="4" recordCount="0"/>
												<ScoreDistribution value="5" recordCount="0"/>
												<ScoreDistribution value="6" recordCount="0"/>
												<ScoreDistribution value="7" recordCount="0"/>
												<ScoreDistribution value="8" recordCount="0"/>
												<ScoreDistribution value="9" recordCount="0"/>
											</Node>
											<Node score="1" recordCount="1">
												<True/>
												<ScoreDistribution value="0" recordCount="0"/>
												<ScoreDistribution value="1" recordCount="1"/>
												<ScoreDistribution value="10" recordCount="0"/>
												<ScoreDistribution value="2" recordCount="0"/>
												<ScoreDistribution value="3" recordCount="0"/>
												<ScoreDistribution value="4" recordCount="0"/>
												<ScoreDistribution value="5" recordCount="0"/>
												<ScoreDistribution value="6" recordCount="0"/>
												<ScoreDistribution value="7" recordCount="0"/>
												<ScoreDistribution value="8" recordCount="0"/>
												<ScoreDistribution value="9" recordCount="0"/>
											</Node>
										</Node>
										<Node score="3" recordCount="1">
											<True/>
											<ScoreDistribution value="0" recordCount="0"/>
											<ScoreDistribution value="1" recordCount="0"/>
											<ScoreDistribution value="10" recordCount="0"/>
											<ScoreDistribution value="2" recordCount="0"/>
											<ScoreDistribution value="3" recordCount="1"/>
											<ScoreDistribution value="4" recordCount="0"/>
											<ScoreDistribution value="5" recordCount="0"/>
											<ScoreDistribution value="6" recordCount="0"/>
											<ScoreDistribution value="7" recordCount="0"/>
											<ScoreDistribution value="8" recordCount="0"/>
											<ScoreDistribution value="9" recordCount="0"/>
										</Node>
									</Node>
									<Node score="1" recordCount="1">
										<True/>
										<ScoreDistribution value="0" recordCount="0"/>
										<ScoreDistribution value="1" recordCount="1"/>
										<ScoreDistribution value="10" recordCount="0"/>
										<ScoreDistribution value="2" recordCount="0"/>
										<ScoreDistribution value="3" recordCount="0"/>
										<ScoreDistribution value="4" recordCount="0"/>
										<ScoreDistribution value="5" recordCount="0"/>
										<ScoreDistribution value="6" recordCount="0"/>
										<ScoreDistribution value="7" recordCount="0"/>
										<ScoreDistribution value="8" recordCount="0"/>
										<ScoreDistribution value="9" recordCount="0"/>
									</Node>
								</Node>
								<Node score="10" recordCount="1">
									<True/>
									<ScoreDistribution value="0" recordCount="0"/>
									<ScoreDistribution value="1" recordCount="0"/>
									<ScoreDistribution value="10" recordCount="1"/>
									<ScoreDistribution value="2" recordCount="0"/>
									<ScoreDistribution value="3" recordCount="0"/>
									<ScoreDistribution value="4" recordCount="0"/>
									<ScoreDistribution value="5" recordCount="0"/>
									<ScoreDistribution value="6" recordCount="0"/>
									<ScoreDistribution value="7" recordCount="0"/>
									<ScoreDistribution value="8" recordCount="0"/>
									<ScoreDistribution value="9" recordCount="0"/>
								</Node>
							</Node>
							<Node score="4" recordCount="1">
								<True/>
								<ScoreDistribution value="0" recordCount="0"/>
								<ScoreDistribution value="1" recordCount="0"/>
								<ScoreDistribution value="10" recordCount="0"/>
								<ScoreDistribution value="2" recordCount="0"/>
								<ScoreDistribution value="3" recordCount="0"/>
								<ScoreDistribution value="4" recordCount="1"/>
								<ScoreDistribution value="5" recordCount="0"/>
								<ScoreDistribution value="6" recordCount="0"/>
								<ScoreDistribution value="7" recordCount="0"/>
								<ScoreDistribution value="8" recordCount="0"/>
								<ScoreDistribution value="9" recordCount="0"/>
							</Node>
						</Node>
						<Node score="5" recordCount="1">
							<True/>
							<ScoreDistribution value="0" recordCount="0"/>
							<ScoreDistribution value="1" recordCount="0"/>
							<ScoreDistribution value="10" recordCount="0"/>
							<ScoreDistribution value="2" recordCount="0"/>
							<ScoreDistribution value="3" recordCount="0"/>
							<ScoreDistribution value="4" recordCount="0"/>
							<ScoreDistribution value="5" recordCount="1"/>
							<ScoreDistribution value="6" recordCount="0"/>
							<ScoreDistribution value="7" recordCount="0"/>
							<ScoreDistribution value="8" recordCount="0"/>
							<ScoreDistribution value="9" recordCount="0"/>
						</Node>
					</Node>
				</TreeModel>
			</Segment>
			<Segment id="3">
				<True/>
				<TreeModel functionName="classification" missingValueStrategy="nullPrediction">
					<MiningSchema>
						<MiningField name="double(feature_29)"/>
						<MiningField name="double(feature_8)"/>
						<MiningField name="double(feature_17)"/>
						<MiningField name="double(feature_28)"/>
						<MiningField name="double(feature_34)"/>
						<MiningField name="double(feature_37)"/>
						<MiningField name="double(feature_31)"/>
						<MiningField name="double(feature_41)"/>
						<MiningField name="double(feature_13)"/>
						<MiningField name="double(feature_25)"/>
						<MiningField name="double(feature_5)"/>
						<MiningField name="double(feature_3)"/>
					</MiningSchema>
					<Node>
						<True/>
						<Node score="10" recordCount="1">
							<SimplePredicate field="double(feature_5)" operator="lessOrEqual" value="0.17305105924606323"/>
							<ScoreDistribution value="0" recordCount="0"/>
							<ScoreDistribution value="1" recordCount="0"/>
							<ScoreDistribution value="10" recordCount="1"/>
							<ScoreDistribution value="2" recordCount="0"/>
							<ScoreDistribution value="3" recordCount="0"/>
							<ScoreDistribution value="4" recordCount="0"/>
							<ScoreDistribution value="5" recordCount="0"/>
							<ScoreDistribution value="6" recordCount="0"/>
							<ScoreDistribution value="7" recordCount="0"/>
							<ScoreDistribution value="8" recordCount="0"/>
							<ScoreDistribution value="9" recordCount="0"/>
						</Node>
						<Node>
							<SimplePredicate field="double(feature_31)" operator="lessOrEqual" value="0.09536999464035034"/>
							<Node>
								<SimplePredicate field="double(feature_41)" operator="lessOrEqual" value="0.08867992460727692"/>
								<Node score="0" recordCount="1">
									<SimplePredicate field="double(feature_13)" operator="lessOrEqual" value="0.07574324309825897"/>
									<ScoreDistribution value="0" recordCount="1"/>
									<ScoreDistribution value="1" recordCount="0"/>
									<ScoreDistribution value="10" recordCount="0"/>
									<ScoreDistribution value="2" recordCount="0"/>
									<ScoreDistribution value="3" recordCount="0"/>
									<ScoreDistribution value="4" recordCount="0"/>
									<ScoreDistribution value="5" recordCount="0"/>
									<ScoreDistribution value="6" recordCount="0"/>
									<ScoreDistribution value="7" recordCount="0"/>
									<ScoreDistribution value="8" recordCount="0"/>
									<ScoreDistribution value="9" recordCount="0"/>
								</Node>
								<Node score="8" recordCount="1">
									<True/>
									<ScoreDistribution value="0" recordCount="0"/>
									<ScoreDistribution value="1" recordCount="0"/>
									<ScoreDistribution value="10" recordCount="0"/>
									<ScoreDistribution value="2" recordCount="0"/>
									<ScoreDistribution value="3" recordCount="0"/>
									<ScoreDistribution value="4" recordCount="0"/>
									<ScoreDistribution value="5" recordCount="0"/>
									<ScoreDistribution value="6" recordCount="0"/>
									<ScoreDistribution value="7" recordCount="0"/>
									<ScoreDistribution value="8" recordCount="1"/>
									<ScoreDistribution value="9" recordCount="0"/>
								</Node>
							</Node>
							<Node score="9" recordCount="1">
								<True/>
								<ScoreDistribution value="0" recordCount="0"/>
								<ScoreDistribution value="1" recordCount="0"/>
								<ScoreDistribution value="10" recordCount="0"/>
								<ScoreDistribution value="2" recordCount="0"/>
								<ScoreDistribution value="3" recordCount="0"/>
								<ScoreDistribution value="4" recordCount="0"/>
								<ScoreDistribution value="5" recordCount="0"/>
								<ScoreDistribution value="6" recordCount="0"/>
								<ScoreDistribution value="7" recordCount="0"/>
								<ScoreDistribution value="8" recordCount="0"/>
								<ScoreDistribution value="9" recordCount="1"/>
							</Node>
						</Node>
						<Node>
							<SimplePredicate field="double(feature_25)" operator="lessOrEqual" value="0.18726900219917297"/>
							<Node score="7" recordCount="1">
								<SimplePredicate field="double(feature_41)" operator="lessOrEqual" value="0.14106546342372894"/>
								<ScoreDistribution value="0" recordCount="0"/>
								<ScoreDistribution value="1" recordCount="0"/>
								<ScoreDistribution value="10" recordCount="0"/>
								<ScoreDistribution value="2" recordCount="0"/>
								<ScoreDistribution value="3" recordCount="0"/>
								<ScoreDistribution value="4" recordCount="0"/>
								<ScoreDistribution value="5" recordCount="0"/>
								<ScoreDistribution value="6" recordCount="0"/>
								<ScoreDistribution value="7" recordCount="1"/>
								<ScoreDistribution value="8" recordCount="0"/>
								<ScoreDistribution value="9" recordCount="0"/>
							</Node>
							<Node>
								<SimplePredicate field="double(feature_8)" operator="lessOrEqual" value="0.33543112874031067"/>
								<Node>
									<SimplePredicate field="double(feature_34)" operator="lessOrEqual" value="0.05850827693939209"/>
									<Node>
										<SimplePredicate field="double(feature_29)" operator="lessOrEqual" value="0.2278621941804886"/>
										<Node score="2" recordCount="1">
											<SimplePredicate field="double(feature_3)" operator="lessOrEqual" value="0.41002318263053894"/>
											<ScoreDistribution value="0" recordCount="0"/>
											<ScoreDistribution value="1" recordCount="0"/>
											<ScoreDistribution value="10" recordCount="0"/>
											<ScoreDistribution value="2" recordCount="1"/>
											<ScoreDistribution value="3" recordCount="0"/>
											<ScoreDistribution value="4" recordCount="0"/>
											<ScoreDistribution value="5" recordCount="0"/>
											<ScoreDistribution value="6" recordCount="0"/>
											<ScoreDistribution value="7" recordCount="0"/>
											<ScoreDistribution value="8" recordCount="0"/>
											<ScoreDistribution value="9" recordCount="0"/>
										</Node>
										<Node score="6" recordCount="1">
											<True/>
											<ScoreDistribution value="0" recordCount="0"/>
											<ScoreDistribution value="1" recordCount="0"/>
											<ScoreDistribution value="10" recordCount="0"/>
											<ScoreDistribution value="2" recordCount="0"/>
											<ScoreDistribution value="3" recordCount="0"/>
											<ScoreDistribution value="4" recordCount="0"/>
											<ScoreDistribution value="5" recordCount="0"/>
											<ScoreDistribution value="6" recordCount="1"/>
											<ScoreDistribution value="7" recordCount="0"/>
											<ScoreDistribution value="8" recordCount="0"/>
											<ScoreDistribution value="9" recordCount="0"/>
										</Node>
									</Node>
									<Node>
										<SimplePredicate field="double(feature_17)" operator="lessOrEqual" value="0.011550679802894592"/>
										<Node score="2" recordCount="1">
											<SimplePredicate field="double(feature_28)" operator="lessOrEqual" value="0.0501566007733345"/>
											<ScoreDistribution value="0" recordCount="0"/>
											<ScoreDistribution value="1" recordCount="0"/>
											<ScoreDistribution value="10" recordCount="0"/>
											<ScoreDistribution value="2" recordCount="1"/>
											<ScoreDistribution value="3" recordCount="0"/>
											<ScoreDistribution value="4" recordCount="0"/>
											<ScoreDistribution value="5" recordCount="0"/>
											<ScoreDistribution value="6" recordCount="0"/>
											<ScoreDistribution value="7" recordCount="0"/>
											<ScoreDistribution value="8" recordCount="0"/>
											<ScoreDistribution value="9" recordCount="0"/>
										</Node>
										<Node score="3" recordCount="1">
											<True/>
											<ScoreDistribution value="0" recordCount="0"/>
											<ScoreDistribution value="1" recordCount="0"/>
											<ScoreDistribution value="10" recordCount="0"/>
											<ScoreDistribution value="2" recordCount="0"/>
											<ScoreDistribution value="3" recordCount="1"/>
											<ScoreDistribution value="4" recordCount="0"/>
											<ScoreDistribution value="5" recordCount="0"/>
											<ScoreDistribution value="6" recordCount="0"/>
											<ScoreDistribution value="7" recordCount="0"/>
											<ScoreDistribution value="8" recordCount="0"/>
											<ScoreDistribution value="9" recordCount="0"/>
										</Node>
									</Node>
									<Node score="2" recordCount="1">
										<True/>
										<ScoreDistribution value="0" recordCount="0"/>
										<ScoreDistribution value="1" recordCount="0"/>
										<ScoreDistribution value="10" recordCount="0"/>
										<ScoreDistribution value="2" recordCount="1"/>
										<ScoreDistribution value="3" recordCount="0"/>
										<ScoreDistribution value="4" recordCount="0"/>
										<ScoreDistribution value="5" recordCount="0"/>
										<ScoreDistribution value="6" recordCount="0"/>
										<ScoreDistribution value="7" recordCount="0"/>
										<ScoreDistribution value="8" recordCount="0"/>
										<ScoreDistribution value="9" recordCount="0"/>
									</Node>
								</Node>
								<Node score="4" recordCount="1">
									<True/>
									<ScoreDistribution value="0" recordCount="0"/>
									<ScoreDistribution value="1" recordCount="0"/>
									<ScoreDistribution value="10" recordCount="0"/>
									<ScoreDistribution value="2" recordCount="0"/>
									<ScoreDistribution value="3" recordCount="0"/>
									<ScoreDistribution value="4" recordCount="1"/>
									<ScoreDistribution value="5" recordCount="0"/>
									<ScoreDistribution value="6" recordCount="0"/>
									<ScoreDistribution value="7" recordCount="0"/>
									<ScoreDistribution value="8" recordCount="0"/>
									<ScoreDistribution value="9" recordCount="0"/>
								</Node>
							</Node>
							<Node score="5" recordCount="1">
								<True/>
								<ScoreDistribution value="0" recordCount="0"/>
								<ScoreDistribution value="1" recordCount="0"/>
								<ScoreDistribution value="10" recordCount="0"/>
								<ScoreDistribution value="2" recordCount="0"/>
								<ScoreDistribution value="3" recordCount="0"/>
								<ScoreDistribution value="4" recordCount="0"/>
								<ScoreDistribution value="5" recordCount="1"/>
								<ScoreDistribution value="6" recordCount="0"/>
								<ScoreDistribution value="7" recordCount="0"/>
								<ScoreDistribution value="8" recordCount="0"/>
								<ScoreDistribution value="9" recordCount="0"/>
							</Node>
						</Node>
						<Node score="8" recordCount="1">
							<SimplePredicate field="double(feature_37)" operator="lessOrEqual" value="0.1999538391828537"/>
							<ScoreDistribution value="0" recordCount="0"/>
							<ScoreDistribution value="1" recordCount="0"/>
							<ScoreDistribution value="10" recordCount="0"/>
							<ScoreDistribution value="2" recordCount="0"/>
							<ScoreDistribution value="3" recordCount="0"/>
							<ScoreDistribution value="4" recordCount="0"/>
							<ScoreDistribution value="5" recordCount="0"/>
							<ScoreDistribution value="6" recordCount="0"/>
							<ScoreDistribution value="7" recordCount="0"/>
							<ScoreDistribution value="8" recordCount="1"/>
							<ScoreDistribution value="9" recordCount="0"/>
						</Node>
						<Node score="1" recordCount="1">
							<True/>
							<ScoreDistribution value="0" recordCount="0"/>
							<ScoreDistribution value="1" recordCount="1"/>
							<ScoreDistribution value="10" recordCount="0"/>
							<ScoreDistribution value="2" recordCount="0"/>
							<ScoreDistribution value="3" recordCount="0"/>
							<ScoreDistribution value="4" recordCount="0"/>
							<ScoreDistribution value="5" recordCount="0"/>
							<ScoreDistribution value="6" recordCount="0"/>
							<ScoreDistribution value="7" recordCount="0"/>
							<ScoreDistribution value="8" recordCount="0"/>
							<ScoreDistribution value="9" recordCount="0"/>
						</Node>
					</Node>
				</TreeModel>
			</Segment>
			<Segment id="4">
				<True/>
				<TreeModel functionName="classification" missingValueStrategy="nullPrediction">
					<MiningSchema>
						<MiningField name="double(feature_27)"/>
						<MiningField name="double(feature_29)"/>
						<MiningField name="double(feature_8)"/>
						<MiningField name="double(feature_17)"/>
						<MiningField name="double(feature_38)"/>
						<MiningField name="double(feature_28)"/>
						<MiningField name="double(feature_9)"/>
						<MiningField name="double(feature_31)"/>
						<MiningField name="double(feature_1)"/>
						<MiningField name="double(feature_5)"/>
						<MiningField name="double(feature_35)"/>
						<MiningField name="double(feature_23)"/>
						<MiningField name="double(feature_15)"/>
						<MiningField name="double(feature_26)"/>
						<MiningField name="double(feature_4)"/>
						<MiningField name="double(feature_36)"/>
						<MiningField name="double(feature_12)"/>
					</MiningSchema>
					<Node>
						<True/>
						<Node>
							<SimplePredicate field="double(feature_8)" operator="lessOrEqual" value="0.33543112874031067"/>
							<Node>
								<SimplePredicate field="double(feature_1)" operator="lessOrEqual" value="0.35674235224723816"/>
								<Node score="2" recordCount="1">
									<SimplePredicate field="double(feature_35)" operator="lessOrEqual" value="0.21083329617977142"/>
									<ScoreDistribution value="0" recordCount="0"/>
									<ScoreDistribution value="1" recordCount="0"/>
									<ScoreDistribution value="10" recordCount="0"/>
									<ScoreDistribution value="2" recordCount="1"/>
									<ScoreDistribution value="3" recordCount="0"/>
									<ScoreDistribution value="4" recordCount="0"/>
									<ScoreDistribution value="5" recordCount="0"/>
									<ScoreDistribution value="6" recordCount="0"/>
									<ScoreDistribution value="7" recordCount="0"/>
									<ScoreDistribution value="8" recordCount="0"/>
									<ScoreDistribution value="9" recordCount="0"/>
								</Node>
								<Node score="10" recordCount="1">
									<True/>
									<ScoreDistribution value="0" recordCount="0"/>
									<ScoreDistribution value="1" recordCount="0"/>
									<ScoreDistribution value="10" recordCount="1"/>
									<ScoreDistribution value="2" recordCount="0"/>
									<ScoreDistribution value="3" recordCount="0"/>
									<ScoreDistribution value="4" recordCount="0"/>
									<ScoreDistribution value="5" recordCount="0"/>
									<ScoreDistribution value="6" recordCount="0"/>
									<ScoreDistribution value="7" recordCount="0"/>
									<ScoreDistribution value="8" recordCount="0"/>
									<ScoreDistribution value="9" recordCount="0"/>
								</Node>
							</Node>
							<Node>
								<SimplePredicate field="double(feature_17)" operator="lessOrEqual" value="0.11559915542602539"/>
								<Node>
									<SimplePredicate field="double(feature_23)" operator="lessOrEqual" value="0.29795026779174805"/>
									<Node score="0" recordCount="1">
										<SimplePredicate field="double(feature_9)" operator="lessOrEqual" value="0.15015354752540588"/>
										<ScoreDistribution value="0" recordCount="1"/>
										<ScoreDistribution value="1" recordCount="0"/>
										<ScoreDistribution value="10" recordCount="0"/>
										<ScoreDistribution value="2" recordCount="0"/>
										<ScoreDistribution value="3" recordCount="0"/>
										<ScoreDistribution value="4" recordCount="0"/>
										<ScoreDistribution value="5" recordCount="0"/>
										<ScoreDistribution value="6" recordCount="0"/>
										<ScoreDistribution value="7" recordCount="0"/>
										<ScoreDistribution value="8" recordCount="0"/>
										<ScoreDistribution value="9" recordCount="0"/>
									</Node>
									<Node>
										<SimplePredicate field="double(feature_38)" operator="lessOrEqual" value="0.01968204975128174"/>
										<Node score="8" recordCount="1">
											<SimplePredicate field="double(feature_15)" operator="lessOrEqual" value="0.08097244799137115"/>
											<ScoreDistribution value="0" recordCount="0"/>
											<ScoreDistribution value="1" recordCount="0"/>
											<ScoreDistribution value="10" recordCount="0"/>
											<ScoreDistribution value="2" recordCount="0"/>
											<ScoreDistribution value="3" recordCount="0"/>
											<ScoreDistribution value="4" recordCount="0"/>
											<ScoreDistribution value="5" recordCount="0"/>
											<ScoreDistribution value="6" recordCount="0"/>
											<ScoreDistribution value="7" recordCount="0"/>
											<ScoreDistribution value="8" recordCount="1"/>
											<ScoreDistribution value="9" recordCount="0"/>
										</Node>
										<Node score="6" recordCount="1">
											<SimplePredicate field="double(feature_28)" operator="lessOrEqual" value="0.07084503769874573"/>
											<ScoreDistribution value="0" recordCount="0"/>
											<ScoreDistribution value="1" recordCount="0"/>
											<ScoreDistribution value="10" recordCount="0"/>
											<ScoreDistribution value="2" recordCount="0"/>
											<ScoreDistribution value="3" recordCount="0"/>
											<ScoreDistribution value="4" recordCount="0"/>
											<ScoreDistribution value="5" recordCount="0"/>
											<ScoreDistribution value="6" recordCount="1"/>
											<ScoreDistribution value="7" recordCount="0"/>
											<ScoreDistribution value="8" recordCount="0"/>
											<ScoreDistribution value="9" recordCount="0"/>
										</Node>
										<Node score="8" recordCount="1">
											<SimplePredicate field="double(feature_27)" operator="lessOrEqual" value="0.24369420111179352"/>
											<ScoreDistribution value="0" recordCount="0"/>
											<ScoreDistribution value="1" recordCount="0"/>
											<ScoreDistribution value="10" recordCount="0"/>
											<ScoreDistribution value="2" recordCount="0"/>
											<ScoreDistribution value="3" recordCount="0"/>
											<ScoreDistribution value="4" recordCount="0"/>
											<ScoreDistribution value="5" recordCount="0"/>
											<ScoreDistribution value="6" recordCount="0"/>
											<ScoreDistribution value="7" recordCount="0"/>
											<ScoreDistribution value="8" recordCount="1"/>
											<ScoreDistribution value="9" recordCount="0"/>
										</Node>
										<Node score="7" recordCount="1">
											<True/>
											<ScoreDistribution value="0" recordCount="0"/>
											<ScoreDistribution value="1" recordCount="0"/>
											<ScoreDistribution value="10" recordCount="0"/>
											<ScoreDistribution value="2" recordCount="0"/>
											<ScoreDistribution value="3" recordCount="0"/>
											<ScoreDistribution value="4" recordCount="0"/>
											<ScoreDistribution value="5" recordCount="0"/>
											<ScoreDistribution value="6" recordCount="0"/>
											<ScoreDistribution value="7" recordCount="1"/>
											<ScoreDistribution value="8" recordCount="0"/>
											<ScoreDistribution value="9" recordCount="0"/>
										</Node>
									</Node>
									<Node score="4" recordCount="1">
										<SimplePredicate field="double(feature_29)" operator="lessOrEqual" value="0.19639673829078674"/>
										<ScoreDistribution value="0" recordCount="0"/>
										<ScoreDistribution value="1" recordCount="0"/>
										<ScoreDistribution value="10" recordCount="0"/>
										<ScoreDistribution value="2" recordCount="0"/>
										<ScoreDistribution value="3" recordCount="0"/>
										<ScoreDistribution value="4" recordCount="1"/>
										<ScoreDistribution value="5" recordCount="0"/>
										<ScoreDistribution value="6" recordCount="0"/>
										<ScoreDistribution value="7" recordCount="0"/>
										<ScoreDistribution value="8" recordCount="0"/>
										<ScoreDistribution value="9" recordCount="0"/>
									</Node>
									<Node>
										<SimplePredicate field="double(feature_26)" operator="lessOrEqual" value="0.044522106647491455"/>
										<Node>
											<SimplePredicate field="double(feature_4)" operator="lessOrEqual" value="0.15558019280433655"/>
											<Node score="6" recordCount="1">
												<SimplePredicate field="double(feature_31)" operator="lessOrEqual" value="0.20565560460090637"/>
												<ScoreDistribution value="0" recordCount="0"/>
												<ScoreDistribution value="1" recordCount="0"/>
												<ScoreDistribution value="10" recordCount="0"/>
												<ScoreDistribution value="2" recordCount="0"/>
												<ScoreDistribution value="3" recordCount="0"/>
												<ScoreDistribution value="4" recordCount="0"/>
												<ScoreDistribution value="5" recordCount="0"/>
												<ScoreDistribution value="6" recordCount="1"/>
												<ScoreDistribution value="7" recordCount="0"/>
												<ScoreDistribution value="8" recordCount="0"/>
												<ScoreDistribution value="9" recordCount="0"/>
											</Node>
											<Node score="2" recordCount="1">
												<True/>
												<ScoreDistribution value="0" recordCount="0"/>
												<ScoreDistribution value="1" recordCount="0"/>
												<ScoreDistribution value="10" recordCount="0"/>
												<ScoreDistribution value="2" recordCount="1"/>
												<ScoreDistribution value="3" recordCount="0"/>
												<ScoreDistribution value="4" recordCount="0"/>
												<ScoreDistribution value="5" recordCount="0"/>
												<ScoreDistribution value="6" recordCount="0"/>
												<ScoreDistribution value="7" recordCount="0"/>
												<ScoreDistribution value="8" recordCount="0"/>
												<ScoreDistribution value="9" recordCount="0"/>
											</Node>
										</Node>
										<Node>
											<SimplePredicate field="double(feature_17)" operator="lessOrEqual" value="0.010866984724998474"/>
											<Node score="3" recordCount="1">
												<SimplePredicate field="double(feature_36)" operator="lessOrEqual" value="0.05289396643638611"/>
												<ScoreDistribution value="0" recordCount="0"/>
												<ScoreDistribution value="1" recordCount="0"/>
												<ScoreDistribution value="10" recordCount="0"/>
												<ScoreDistribution value="2" recordCount="0"/>
												<ScoreDistribution value="3" recordCount="1"/>
												<ScoreDistribution value="4" recordCount="0"/>
												<ScoreDistribution value="5" recordCount="0"/>
												<ScoreDistribution value="6" recordCount="0"/>
												<ScoreDistribution value="7" recordCount="0"/>
												<ScoreDistribution value="8" recordCount="0"/>
												<ScoreDistribution value="9" recordCount="0"/>
											</Node>
											<Node score="1" recordCount="1">
												<SimplePredicate field="double(feature_12)" operator="lessOrEqual" value="0.15382638573646545"/>
												<ScoreDistribution value="0" recordCount="0"/>
												<ScoreDistribution value="1" recordCount="1"/>
												<ScoreDistribution value="10" recordCount="0"/>
												<ScoreDistribution value="2" recordCount="0"/>
												<ScoreDistribution value="3" recordCount="0"/>
												<ScoreDistribution value="4" recordCount="0"/>
												<ScoreDistribution value="5" recordCount="0"/>
												<ScoreDistribution value="6" recordCount="0"/>
												<ScoreDistribution value="7" recordCount="0"/>
												<ScoreDistribution value="8" recordCount="0"/>
												<ScoreDistribution value="9" recordCount="0"/>
											</Node>
											<Node score="3" recordCount="1">
												<True/>
												<ScoreDistribution value="0" recordCount="0"/>
												<ScoreDistribution value="1" recordCount="0"/>
												<ScoreDistribution value="10" recordCount="0"/>
												<ScoreDistribution value="2" recordCount="0"/>
												<ScoreDistribution value="3" recordCount="1"/>
												<ScoreDistribution value="4" recordCount="0"/>
												<ScoreDistribution value="5" recordCount="0"/>
												<ScoreDistribution value="6" recordCount="0"/>
												<ScoreDistribution value="7" recordCount="0"/>
												<ScoreDistribution value="8" recordCount="0"/>
												<ScoreDistribution value="9" recordCount="0"/>
											</Node>
										</Node>
										<Node score="2" recordCount="1">
											<SimplePredicate field="double(feature_5)" operator="lessOrEqual" value="0.48162682354450226"/>
											<ScoreDistribution value="0" recordCount="0"/>
											<ScoreDistribution value="1" recordCount="0"/>
											<ScoreDistribution value="10" recordCount="0"/>
											<ScoreDistribution value="2" recordCount="1"/>
											<ScoreDistribution value="3" recordCount="0"/>
											<ScoreDistribution value="4" recordCount="0"/>
											<ScoreDistribution value="5" recordCount="0"/>
											<ScoreDistribution value="6" recordCount="0"/>
											<ScoreDistribution value="7" recordCount="0"/>
											<ScoreDistribution value="8" recordCount="0"/>
											<ScoreDistribution value="9" recordCount="0"/>
										</Node>
										<Node score="6" recordCount="1">
											<True/>
											<ScoreDistribution value="0" recordCount="0"/>
											<ScoreDistribution value="1" recordCount="0"/>
											<ScoreDistribution value="10" recordCount="0"/>
											<ScoreDistribution value="2" recordCount="0"/>
											<ScoreDistribution value="3" recordCount="0"/>
											<ScoreDistribution value="4" recordCount="0"/>
											<ScoreDistribution value="5" recordCount="0"/>
											<ScoreDistribution value="6" recordCount="1"/>
											<ScoreDistribution value="7" recordCount="0"/>
											<ScoreDistribution value="8" recordCount="0"/>
											<ScoreDistribution value="9" recordCount="0"/>
										</Node>
									</Node>
									<Node score="6" recordCount="1">
										<SimplePredicate field="double(feature_28)" operator="lessOrEqual" value="0.06724187731742859"/>
										<ScoreDistribution value="0" recordCount="0"/>
										<ScoreDistribution value="1" recordCount="0"/>
										<ScoreDistribution value="10" recordCount="0"/>
										<ScoreDistribution value="2" recordCount="0"/>
										<ScoreDistribution value="3" recordCount="0"/>
										<ScoreDistribution value="4" recordCount="0"/>
										<ScoreDistribution value="5" recordCount="0"/>
										<ScoreDistribution value="6" recordCount="1"/>
										<ScoreDistribution value="7" recordCount="0"/>
										<ScoreDistribution value="8" recordCount="0"/>
										<ScoreDistribution value="9" recordCount="0"/>
									</Node>
									<Node score="1" recordCount="1">
										<True/>
										<ScoreDistribution value="0" recordCount="0"/>
										<ScoreDistribution value="1" recordCount="1"/>
										<ScoreDistribution value="10" recordCount="0"/>
										<ScoreDistribution value="2" recordCount="0"/>
										<ScoreDistribution value="3" recordCount="0"/>
										<ScoreDistribution value="4" recordCount="0"/>
										<ScoreDistribution value="5" recordCount="0"/>
										<ScoreDistribution value="6" recordCount="0"/>
										<ScoreDistribution value="7" recordCount="0"/>
										<ScoreDistribution value="8" recordCount="0"/>
										<ScoreDistribution value="9" recordCount="0"/>
									</Node>
								</Node>
								<Node score="8" recordCount="1">
									<SimplePredicate field="double(feature_29)" operator="lessOrEqual" value="0.21791578829288483"/>
									<ScoreDistribution value="0" recordCount="0"/>
									<ScoreDistribution value="1" recordCount="0"/>
									<ScoreDistribution value="10" recordCount="0"/>
									<ScoreDistribution value="2" recordCount="0"/>
									<ScoreDistribution value="3" recordCount="0"/>
									<ScoreDistribution value="4" recordCount="0"/>
									<ScoreDistribution value="5" recordCount="0"/>
									<ScoreDistribution value="6" recordCount="0"/>
									<ScoreDistribution value="7" recordCount="0"/>
									<ScoreDistribution value="8" recordCount="1"/>
									<ScoreDistribution value="9" recordCount="0"/>
								</Node>
								<Node score="1" recordCount="1">
									<True/>
									<ScoreDistribution value="0" recordCount="0"/>
									<ScoreDistribution value="1" recordCount="1"/>
									<ScoreDistribution value="10" recordCount="0"/>
									<ScoreDistribution value="2" recordCount="0"/>
									<ScoreDistribution value="3" recordCount="0"/>
									<ScoreDistribution value="4" recordCount="0"/>
									<ScoreDistribution value="5" recordCount="0"/>
									<ScoreDistribution value="6" recordCount="0"/>
									<ScoreDistribution value="7" recordCount="0"/>
									<ScoreDistribution value="8" recordCount="0"/>
									<ScoreDistribution value="9" recordCount="0"/>
								</Node>
							</Node>
							<Node score="9" recordCount="1">
								<True/>
								<ScoreDistribution value="0" recordCount="0"/>
								<ScoreDistribution value="1" recordCount="0"/>
								<ScoreDistribution value="10" recordCount="0"/>
								<ScoreDistribution value="2" recordCount="0"/>
								<ScoreDistribution value="3" recordCount="0"/>
								<ScoreDistribution value="4" recordCount="0"/>
								<ScoreDistribution value="5" recordCount="0"/>
								<ScoreDistribution value="6" recordCount="0"/>
								<ScoreDistribution value="7" recordCount="0"/>
								<ScoreDistribution value="8" recordCount="0"/>
								<ScoreDistribution value="9" recordCount="1"/>
							</Node>
						</Node>
						<Node score="5" recordCount="1">
							<True/>
							<ScoreDistribution value="0" recordCount="0"/>
							<ScoreDistribution value="1" recordCount="0"/>
							<ScoreDistribution value="10" recordCount="0"/>
							<ScoreDistribution value="2" recordCount="0"/>
							<ScoreDistribution value="3" recordCount="0"/>
							<ScoreDistribution value="4" recordCount="0"/>
							<ScoreDistribution value="5" recordCount="1"/>
							<ScoreDistribution value="6" recordCount="0"/>
							<ScoreDistribution value="7" recordCount="0"/>
							<ScoreDistribution value="8" recordCount="0"/>
							<ScoreDistribution value="9" recordCount="0"/>
						</Node>
					</Node>
				</TreeModel>
			</Segment>
			<Segment id="5">
				<True/>
				<TreeModel functionName="classification" missingValueStrategy="nullPrediction">
					<MiningSchema>
						<MiningField name="double(feature_29)"/>
						<MiningField name="double(feature_8)"/>
						<MiningField name="double(feature_17)"/>
						<MiningField name="double(feature_38)"/>
						<MiningField name="double(feature_31)"/>
						<MiningField name="double(feature_1)"/>
						<MiningField name="double(feature_25)"/>
						<MiningField name="double(feature_5)"/>
						<MiningField name="double(feature_3)"/>
						<MiningField name="double(feature_15)"/>
						<MiningField name="double(feature_20)"/>
					</MiningSchema>
					<Node>
						<True/>
						<Node>
							<SimplePredicate field="double(feature_1)" operator="lessOrEqual" value="0.35674235224723816"/>
							<Node score="2" recordCount="1">
								<SimplePredicate field="double(feature_25)" operator="lessOrEqual" value="0.1777513325214386"/>
								<ScoreDistribution value="0" recordCount="0"/>
								<ScoreDistribution value="1" recordCount="0"/>
								<ScoreDistribution value="10" recordCount="0"/>
								<ScoreDistribution value="2" recordCount="1"/>
								<ScoreDistribution value="3" recordCount="0"/>
								<ScoreDistribution value="4" recordCount="0"/>
								<ScoreDistribution value="5" recordCount="0"/>
								<ScoreDistribution value="6" recordCount="0"/>
								<ScoreDistribution value="7" recordCount="0"/>
								<ScoreDistribution value="8" recordCount="0"/>
								<ScoreDistribution value="9" recordCount="0"/>
							</Node>
							<Node score="10" recordCount="1">
								<True/>
								<ScoreDistribution value="0" recordCount="0"/>
								<ScoreDistribution value="1" recordCount="0"/>
								<ScoreDistribution value="10" recordCount="1"/>
								<ScoreDistribution value="2" recordCount="0"/>
								<ScoreDistribution value="3" recordCount="0"/>
								<ScoreDistribution value="4" recordCount="0"/>
								<ScoreDistribution value="5" recordCount="0"/>
								<ScoreDistribution value="6" recordCount="0"/>
								<ScoreDistribution value="7" recordCount="0"/>
								<ScoreDistribution value="8" recordCount="0"/>
								<ScoreDistribution value="9" recordCount="0"/>
							</Node>
						</Node>
						<Node>
							<SimplePredicate field="double(feature_8)" operator="lessOrEqual" value="0.23523761332035065"/>
							<Node>
								<SimplePredicate field="double(feature_29)" operator="lessOrEqual" value="0.1603667289018631"/>
								<Node score="0" recordCount="1">
									<SimplePredicate field="double(feature_29)" operator="lessOrEqual" value="0.06934729218482971"/>
									<ScoreDistribution value="0" recordCount="1"/>
									<ScoreDistribution value="1" recordCount="0"/>
									<ScoreDistribution value="10" recordCount="0"/>
									<ScoreDistribution value="2" recordCount="0"/>
									<ScoreDistribution value="3" recordCount="0"/>
									<ScoreDistribution value="4" recordCount="0"/>
									<ScoreDistribution value="5" recordCount="0"/>
									<ScoreDistribution value="6" recordCount="0"/>
									<ScoreDistribution value="7" recordCount="0"/>
									<ScoreDistribution value="8" recordCount="0"/>
									<ScoreDistribution value="9" recordCount="0"/>
								</Node>
								<Node score="8" recordCount="1">
									<SimplePredicate field="double(feature_15)" operator="lessOrEqual" value="0.1198575347661972"/>
									<ScoreDistribution value="0" recordCount="0"/>
									<ScoreDistribution value="1" recordCount="0"/>
									<ScoreDistribution value="10" recordCount="0"/>
									<ScoreDistribution value="2" recordCount="0"/>
									<ScoreDistribution value="3" recordCount="0"/>
									<ScoreDistribution value="4" recordCount="0"/>
									<ScoreDistribution value="5" recordCount="0"/>
									<ScoreDistribution value="6" recordCount="0"/>
									<ScoreDistribution value="7" recordCount="0"/>
									<ScoreDistribution value="8" recordCount="1"/>
									<ScoreDistribution value="9" recordCount="0"/>
								</Node>
								<Node score="9" recordCount="1">
									<True/>
									<ScoreDistribution value="0" recordCount="0"/>
									<ScoreDistribution value="1" recordCount="0"/>
									<ScoreDistribution value="10" recordCount="0"/>
									<ScoreDistribution value="2" recordCount="0"/>
									<ScoreDistribution value="3" recordCount="0"/>
									<ScoreDistribution value="4" recordCount="0"/>
									<ScoreDistribution value="5" recordCount="0"/>
									<ScoreDistribution value="6" recordCount="0"/>
									<ScoreDistribution value="7" recordCount="0"/>
									<ScoreDistribution value="8" recordCount="0"/>
									<ScoreDistribution value="9" recordCount="1"/>
								</Node>
							</Node>
							<Node>
								<SimplePredicate field="double(feature_38)" operator="lessOrEqual" value="0.06559537351131439"/>
								<Node>
									<SimplePredicate field="double(feature_20)" operator="lessOrEqual" value="0.15056434273719788"/>
									<Node score="6" recordCount="1">
										<SimplePredicate field="double(feature_31)" operator="lessOrEqual" value="0.17090556025505066"/>
										<ScoreDistribution value="0" recordCount="0"/>
										<ScoreDistribution value="1" recordCount="0"/>
										<ScoreDistribution value="10" recordCount="0"/>
										<ScoreDistribution value="2" recordCount="0"/>
										<ScoreDistribution value="3" recordCount="0"/>
										<ScoreDistribution value="4" recordCount="0"/>
										<ScoreDistribution value="5" recordCount="0"/>
										<ScoreDistribution value="6" recordCount="1"/>
										<ScoreDistribution value="7" recordCount="0"/>
										<ScoreDistribution value="8" recordCount="0"/>
										<ScoreDistribution value="9" recordCount="0"/>
									</Node>
									<Node>
										<SimplePredicate field="double(feature_17)" operator="lessOrEqual" value="0.03232881426811218"/>
										<Node score="2" recordCount="1">
											<SimplePredicate field="double(feature_3)" operator="lessOrEqual" value="0.4996430575847626"/>
											<ScoreDistribution value="0" recordCount="0"/>
											<ScoreDistribution value="1" recordCount="0"/>
											<ScoreDistribution value="10" recordCount="0"/>
											<ScoreDistribution value="2" recordCount="1"/>
											<ScoreDistribution value="3" recordCount="0"/>
											<ScoreDistribution value="4" recordCount="0"/>
											<ScoreDistribution value="5" recordCount="0"/>
											<ScoreDistribution value="6" recordCount="0"/>
											<ScoreDistribution value="7" recordCount="0"/>
											<ScoreDistribution value="8" recordCount="0"/>
											<ScoreDistribution value="9" recordCount="0"/>
										</Node>
										<Node score="1" recordCount="1">
											<True/>
											<ScoreDistribution value="0" recordCount="0"/>
											<ScoreDistribution value="1" recordCount="1"/>
											<ScoreDistribution value="10" recordCount="0"/>
											<ScoreDistribution value="2" recordCount="0"/>
											<ScoreDistribution value="3" recordCount="0"/>
											<ScoreDistribution value="4" recordCount="0"/>
											<ScoreDistribution value="5" recordCount="0"/>
											<ScoreDistribution value="6" recordCount="0"/>
											<ScoreDistribution value="7" recordCount="0"/>
											<ScoreDistribution value="8" recordCount="0"/>
											<ScoreDistribution value="9" recordCount="0"/>
										</Node>
									</Node>
									<Node score="7" recordCount="1">
										<True/>
										<ScoreDistribution value="0" recordCount="0"/>
										<ScoreDistribution value="1" recordCount="0"/>
										<ScoreDistribution value="10" recordCount="0"/>
										<ScoreDistribution value="2" recordCount="0"/>
										<ScoreDistribution value="3" recordCount="0"/>
										<ScoreDistribution value="4" recordCount="0"/>
										<ScoreDistribution value="5" recordCount="0"/>
										<ScoreDistribution value="6" recordCount="0"/>
										<ScoreDistribution value="7" recordCount="1"/>
										<ScoreDistribution value="8" recordCount="0"/>
										<ScoreDistribution value="9" recordCount="0"/>
									</Node>
								</Node>
								<Node score="4" recordCount="1">
									<True/>
									<ScoreDistribution value="0" recordCount="0"/>
									<ScoreDistribution value="1" recordCount="0"/>
									<ScoreDistribution value="10" recordCount="0"/>
									<ScoreDistribution value="2" recordCount="0"/>
									<ScoreDistribution value="3" recordCount="0"/>
									<ScoreDistribution value="4" recordCount="1"/>
									<ScoreDistribution value="5" recordCount="0"/>
									<ScoreDistribution value="6" recordCount="0"/>
									<ScoreDistribution value="7" recordCount="0"/>
									<ScoreDistribution value="8" recordCount="0"/>
									<ScoreDistribution value="9" recordCount="0"/>
								</Node>
							</Node>
							<Node score="1" recordCount="1">
								<True/>
								<ScoreDistribution value="0" recordCount="0"/>
								<ScoreDistribution value="1" recordCount="1"/>
								<ScoreDistribution value="10" recordCount="0"/>
								<ScoreDistribution value="2" recordCount="0"/>
								<ScoreDistribution value="3" recordCount="0"/>
								<ScoreDistribution value="4" recordCount="0"/>
								<ScoreDistribution value="5" recordCount="0"/>
								<ScoreDistribution value="6" recordCount="0"/>
								<ScoreDistribution value="7" recordCount="0"/>
								<ScoreDistribution value="8" recordCount="0"/>
								<ScoreDistribution value="9" recordCount="0"/>
							</Node>
						</Node>
						<Node>
							<SimplePredicate field="double(feature_29)" operator="lessOrEqual" value="0.2248658388853073"/>
							<Node score="5" recordCount="1">
								<SimplePredicate field="double(feature_5)" operator="lessOrEqual" value="0.4404430538415909"/>
								<ScoreDistribution value="0" recordCount="0"/>
								<ScoreDistribution value="1" recordCount="0"/>
								<ScoreDistribution value="10" recordCount="0"/>
								<ScoreDistribution value="2" recordCount="0"/>
								<ScoreDistribution value="3" recordCount="0"/>
								<ScoreDistribution value="4" recordCount="0"/>
								<ScoreDistribution value="5" recordCount="1"/>
								<ScoreDistribution value="6" recordCount="0"/>
								<ScoreDistribution value="7" recordCount="0"/>
								<ScoreDistribution value="8" recordCount="0"/>
								<ScoreDistribution value="9" recordCount="0"/>
							</Node>
							<Node score="9" recordCount="1">
								<True/>
								<ScoreDistribution value="0" recordCount="0"/>
								<ScoreDistribution value="1" recordCount="0"/>
								<ScoreDistribution value="10" recordCount="0"/>
								<ScoreDistribution value="2" recordCount="0"/>
								<ScoreDistribution value="3" recordCount="0"/>
								<ScoreDistribution value="4" recordCount="0"/>
								<ScoreDistribution value="5" recordCount="0"/>
								<ScoreDistribution value="6" recordCount="0"/>
								<ScoreDistribution value="7" recordCount="0"/>
								<ScoreDistribution value="8" recordCount="0"/>
								<ScoreDistribution value="9" recordCount="1"/>
							</Node>
						</Node>
						<Node score="3" recordCount="1">
							<True/>
							<ScoreDistribution value="0" recordCount="0"/>
							<ScoreDistribution value="1" recordCount="0"/>
							<ScoreDistribution value="10" recordCount="0"/>
							<ScoreDistribution value="2" recordCount="0"/>
							<ScoreDistribution value="3" recordCount="1"/>
							<ScoreDistribution value="4" recordCount="0"/>
							<ScoreDistribution value="5" recordCount="0"/>
							<ScoreDistribution value="6" recordCount="0"/>
							<ScoreDistribution value="7" recordCount="0"/>
							<ScoreDistribution value="8" recordCount="0"/>
							<ScoreDistribution value="9" recordCount="0"/>
						</Node>
					</Node>
				</TreeModel>
			</Segment>
			<Segment id="6">
				<True/>
				<TreeModel functionName="classification" missingValueStrategy="nullPrediction">
					<MiningSchema>
						<MiningField name="double(feature_29)"/>
						<MiningField name="double(feature_40)"/>
						<MiningField name="double(feature_7)"/>
						<MiningField name="double(feature_6)"/>
						<MiningField name="double(feature_17)"/>
						<MiningField name="double(feature_39)"/>
						<MiningField name="double(feature_33)"/>
						<MiningField name="double(feature_37)"/>
						<MiningField name="double(feature_31)"/>
						<MiningField name="double(feature_41)"/>
						<MiningField name="double(feature_1)"/>
						<MiningField name="double(feature_14)"/>
						<MiningField name="double(feature_3)"/>
						<MiningField name="double(feature_35)"/>
						<MiningField name="double(feature_23)"/>
						<MiningField name="double(feature_15)"/>
						<MiningField name="double(feature_21)"/>
						<MiningField name="double(feature_16)"/>
						<MiningField name="double(feature_2)"/>
					</MiningSchema>
					<Node>
						<True/>
						<Node score="10" recordCount="1">
							<SimplePredicate field="double(feature_7)" operator="lessOrEqual" value="0.0960589349269867"/>
							<ScoreDistribution value="0" recordCount="0"/>
							<ScoreDistribution value="1" recordCount="0"/>
							<ScoreDistribution value="10" recordCount="1"/>
							<ScoreDistribution value="2" recordCount="0"/>
							<ScoreDistribution value="3" recordCount="0"/>
							<ScoreDistribution value="4" recordCount="0"/>
							<ScoreDistribution value="5" recordCount="0"/>
							<ScoreDistribution value="6" recordCount="0"/>
							<ScoreDistribution value="7" recordCount="0"/>
							<ScoreDistribution value="8" recordCount="0"/>
							<ScoreDistribution value="9" recordCount="0"/>
						</Node>
						<Node>
							<SimplePredicate field="double(feature_33)" operator="lessOrEqual" value="0.037339672446250916"/>
							<Node score="8" recordCount="1">
								<SimplePredicate field="double(feature_37)" operator="lessOrEqual" value="0.1899348348379135"/>
								<ScoreDistribution value="0" recordCount="0"/>
								<ScoreDistribution value="1" recordCount="0"/>
								<ScoreDistribution value="10" recordCount="0"/>
								<ScoreDistribution value="2" recordCount="0"/>
								<ScoreDistribution value="3" recordCount="0"/>
								<ScoreDistribution value="4" recordCount="0"/>
								<ScoreDistribution value="5" recordCount="0"/>
								<ScoreDistribution value="6" recordCount="0"/>
								<ScoreDistribution value="7" recordCount="0"/>
								<ScoreDistribution value="8" recordCount="1"/>
								<ScoreDistribution value="9" recordCount="0"/>
							</Node>
							<Node score="9" recordCount="1">
								<True/>
								<ScoreDistribution value="0" recordCount="0"/>
								<ScoreDistribution value="1" recordCount="0"/>
								<ScoreDistribution value="10" recordCount="0"/>
								<ScoreDistribution value="2" recordCount="0"/>
								<ScoreDistribution value="3" recordCount="0"/>
								<ScoreDistribution value="4" recordCount="0"/>
								<ScoreDistribution value="5" recordCount="0"/>
								<ScoreDistribution value="6" recordCount="0"/>
								<ScoreDistribution value="7" recordCount="0"/>
								<ScoreDistribution value="8" recordCount="0"/>
								<ScoreDistribution value="9" recordCount="1"/>
							</Node>
						</Node>
						<Node>
							<SimplePredicate field="double(feature_21)" operator="lessOrEqual" value="0.19002223014831543"/>
							<Node>
								<SimplePredicate field="double(feature_41)" operator="lessOrEqual" value="0.15582381188869476"/>
								<Node>
									<SimplePredicate field="double(feature_29)" operator="lessOrEqual" value="0.1908360719680786"/>
									<Node score="0" recordCount="1">
										<SimplePredicate field="double(feature_23)" operator="lessOrEqual" value="0.03142555058002472"/>
										<ScoreDistribution value="0" recordCount="1"/>
										<ScoreDistribution value="1" recordCount="0"/>
										<ScoreDistribution value="10" recordCount="0"/>
										<ScoreDistribution value="2" recordCount="0"/>
										<ScoreDistribution value="3" recordCount="0"/>
										<ScoreDistribution value="4" recordCount="0"/>
										<ScoreDistribution value="5" recordCount="0"/>
										<ScoreDistribution value="6" recordCount="0"/>
										<ScoreDistribution value="7" recordCount="0"/>
										<ScoreDistribution value="8" recordCount="0"/>
										<ScoreDistribution value="9" recordCount="0"/>
									</Node>
									<Node score="8" recordCount="1">
										<True/>
										<ScoreDistribution value="0" recordCount="0"/>
										<ScoreDistribution value="1" recordCount="0"/>
										<ScoreDistribution value="10" recordCount="0"/>
										<ScoreDistribution value="2" recordCount="0"/>
										<ScoreDistribution value="3" recordCount="0"/>
										<ScoreDistribution value="4" recordCount="0"/>
										<ScoreDistribution value="5" recordCount="0"/>
										<ScoreDistribution value="6" recordCount="0"/>
										<ScoreDistribution value="7" recordCount="0"/>
										<ScoreDistribution value="8" recordCount="1"/>
										<ScoreDistribution value="9" recordCount="0"/>
									</Node>
								</Node>
								<Node score="7" recordCount="1">
									<True/>
									<ScoreDistribution value="0" recordCount="0"/>
									<ScoreDistribution value="1" recordCount="0"/>
									<ScoreDistribution value="10" recordCount="0"/>
									<ScoreDistribution value="2" recordCount="0"/>
									<ScoreDistribution value="3" recordCount="0"/>
									<ScoreDistribution value="4" recordCount="0"/>
									<ScoreDistribution value="5" recordCount="0"/>
									<ScoreDistribution value="6" recordCount="0"/>
									<ScoreDistribution value="7" recordCount="1"/>
									<ScoreDistribution value="8" recordCount="0"/>
									<ScoreDistribution value="9" recordCount="0"/>
								</Node>
							</Node>
							<Node>
								<SimplePredicate field="double(feature_16)" operator="lessOrEqual" value="0.24708552658557892"/>
								<Node>
									<SimplePredicate field="double(feature_15)" operator="lessOrEqual" value="0.0967755913734436"/>
									<Node>
										<SimplePredicate field="double(feature_15)" operator="lessOrEqual" value="0.07376083731651306"/>
										<Node>
											<SimplePredicate field="double(feature_39)" operator="lessOrEqual" value="0.32729431986808777"/>
											<Node score="2" recordCount="1">
												<SimplePredicate field="double(feature_40)" operator="lessOrEqual" value="0.0579695999622345"/>
												<ScoreDistribution value="0" recordCount="0"/>
												<ScoreDistribution value="1" recordCount="0"/>
												<ScoreDistribution value="10" recordCount="0"/>
												<ScoreDistribution value="2" recordCount="1"/>
												<ScoreDistribution value="3" recordCount="0"/>
												<ScoreDistribution value="4" recordCount="0"/>
												<ScoreDistribution value="5" recordCount="0"/>
												<ScoreDistribution value="6" recordCount="0"/>
												<ScoreDistribution value="7" recordCount="0"/>
												<ScoreDistribution value="8" recordCount="0"/>
												<ScoreDistribution value="9" recordCount="0"/>
											</Node>
											<Node score="1" recordCount="1">
												<SimplePredicate field="double(feature_6)" operator="lessOrEqual" value="0.18807221949100494"/>
												<ScoreDistribution value="0" recordCount="0"/>
												<ScoreDistribution value="1" recordCount="1"/>
												<ScoreDistribution value="10" recordCount="0"/>
												<ScoreDistribution value="2" recordCount="0"/>
												<ScoreDistribution value="3" recordCount="0"/>
												<ScoreDistribution value="4" recordCount="0"/>
												<ScoreDistribution value="5" recordCount="0"/>
												<ScoreDistribution value="6" recordCount="0"/>
												<ScoreDistribution value="7" recordCount="0"/>
												<ScoreDistribution value="8" recordCount="0"/>
												<ScoreDistribution value="9" recordCount="0"/>
											</Node>
											<Node score="3" recordCount="1">
												<True/>
												<ScoreDistribution value="0" recordCount="0"/>
												<ScoreDistribution value="1" recordCount="0"/>
												<ScoreDistribution value="10" recordCount="0"/>
												<ScoreDistribution value="2" recordCount="0"/>
												<ScoreDistribution value="3" recordCount="1"/>
												<ScoreDistribution value="4" recordCount="0"/>
												<ScoreDistribution value="5" recordCount="0"/>
												<ScoreDistribution value="6" recordCount="0"/>
												<ScoreDistribution value="7" recordCount="0"/>
												<ScoreDistribution value="8" recordCount="0"/>
												<ScoreDistribution value="9" recordCount="0"/>
											</Node>
										</Node>
										<Node score="2" recordCount="1">
											<SimplePredicate field="double(feature_31)" operator="lessOrEqual" value="0.3053617477416992"/>
											<ScoreDistribution value="0" recordCount="0"/>
											<ScoreDistribution value="1" recordCount="0"/>
											<ScoreDistribution value="10" recordCount="0"/>
											<ScoreDistribution value="2" recordCount="1"/>
											<ScoreDistribution value="3" recordCount="0"/>
											<ScoreDistribution value="4" recordCount="0"/>
											<ScoreDistribution value="5" recordCount="0"/>
											<ScoreDistribution value="6" recordCount="0"/>
											<ScoreDistribution value="7" recordCount="0"/>
											<ScoreDistribution value="8" recordCount="0"/>
											<ScoreDistribution value="9" recordCount="0"/>
										</Node>
										<Node score="3" recordCount="1">
											<True/>
											<ScoreDistribution value="0" recordCount="0"/>
											<ScoreDistribution value="1" recordCount="0"/>
											<ScoreDistribution value="10" recordCount="0"/>
											<ScoreDistribution value="2" recordCount="0"/>
											<ScoreDistribution value="3" recordCount="1"/>
											<ScoreDistribution value="4" recordCount="0"/>
											<ScoreDistribution value="5" recordCount="0"/>
											<ScoreDistribution value="6" recordCount="0"/>
											<ScoreDistribution value="7" recordCount="0"/>
											<ScoreDistribution value="8" recordCount="0"/>
											<ScoreDistribution value="9" recordCount="0"/>
										</Node>
									</Node>
									<Node score="2" recordCount="1">
										<SimplePredicate field="double(feature_2)" operator="lessOrEqual" value="0.13458409905433655"/>
										<ScoreDistribution value="0" recordCount="0"/>
										<ScoreDistribution value="1" recordCount="0"/>
										<ScoreDistribution value="10" recordCount="0"/>
										<ScoreDistribution value="2" recordCount="1"/>
										<ScoreDistribution value="3" recordCount="0"/>
										<ScoreDistribution value="4" recordCount="0"/>
										<ScoreDistribution value="5" recordCount="0"/>
										<ScoreDistribution value="6" recordCount="0"/>
										<ScoreDistribution value="7" recordCount="0"/>
										<ScoreDistribution value="8" recordCount="0"/>
										<ScoreDistribution value="9" recordCount="0"/>
									</Node>
									<Node score="5" recordCount="1">
										<SimplePredicate field="double(feature_3)" operator="lessOrEqual" value="0.4915607422590256"/>
										<ScoreDistribution value="0" recordCount="0"/>
										<ScoreDistribution value="1" recordCount="0"/>
										<ScoreDistribution value="10" recordCount="0"/>
										<ScoreDistribution value="2" recordCount="0"/>
										<ScoreDistribution value="3" recordCount="0"/>
										<ScoreDistribution value="4" recordCount="0"/>
										<ScoreDistribution value="5" recordCount="1"/>
										<ScoreDistribution value="6" recordCount="0"/>
										<ScoreDistribution value="7" recordCount="0"/>
										<ScoreDistribution value="8" recordCount="0"/>
										<ScoreDistribution value="9" recordCount="0"/>
									</Node>
									<Node score="3" recordCount="1">
										<True/>
										<ScoreDistribution value="0" recordCount="0"/>
										<ScoreDistribution value="1" recordCount="0"/>
										<ScoreDistribution value="10" recordCount="0"/>
										<ScoreDistribution value="2" recordCount="0"/>
										<ScoreDistribution value="3" recordCount="1"/>
										<ScoreDistribution value="4" recordCount="0"/>
										<ScoreDistribution value="5" recordCount="0"/>
										<ScoreDistribution value="6" recordCount="0"/>
										<ScoreDistribution value="7" recordCount="0"/>
										<ScoreDistribution value="8" recordCount="0"/>
										<ScoreDistribution value="9" recordCount="0"/>
									</Node>
								</Node>
								<Node score="6" recordCount="1">
									<True/>
									<ScoreDistribution value="0" recordCount="0"/>
									<ScoreDistribution value="1" recordCount="0"/>
									<ScoreDistribution value="10" recordCount="0"/>
									<ScoreDistribution value="2" recordCount="0"/>
									<ScoreDistribution value="3" recordCount="0"/>
									<ScoreDistribution value="4" recordCount="0"/>
									<ScoreDistribution value="5" recordCount="0"/>
									<ScoreDistribution value="6" recordCount="1"/>
									<ScoreDistribution value="7" recordCount="0"/>
									<ScoreDistribution value="8" recordCount="0"/>
									<ScoreDistribution value="9" recordCount="0"/>
								</Node>
							</Node>
							<Node>
								<SimplePredicate field="double(feature_1)" operator="lessOrEqual" value="0.5460357964038849"/>
								<Node score="5" recordCount="1">
									<SimplePredicate field="double(feature_17)" operator="lessOrEqual" value="0.05581162869930267"/>
									<ScoreDistribution value="0" recordCount="0"/>
									<ScoreDistribution value="1" recordCount="0"/>
									<ScoreDistribution value="10" recordCount="0"/>
									<ScoreDistribution value="2" recordCount="0"/>
									<ScoreDistribution value="3" recordCount="0"/>
									<ScoreDistribution value="4" recordCount="0"/>
									<ScoreDistribution value="5" recordCount="1"/>
									<ScoreDistribution value="6" recordCount="0"/>
									<ScoreDistribution value="7" recordCount="0"/>
									<ScoreDistribution value="8" recordCount="0"/>
									<ScoreDistribution value="9" recordCount="0"/>
								</Node>
								<Node score="4" recordCount="1">
									<True/>
									<ScoreDistribution value="0" recordCount="0"/>
									<ScoreDistribution value="1" recordCount="0"/>
									<ScoreDistribution value="10" recordCount="0"/>
									<ScoreDistribution value="2" recordCount="0"/>
									<ScoreDistribution value="3" recordCount="0"/>
									<ScoreDistribution value="4" recordCount="1"/>
									<ScoreDistribution value="5" recordCount="0"/>
									<ScoreDistribution value="6" recordCount="0"/>
									<ScoreDistribution value="7" recordCount="0"/>
									<ScoreDistribution value="8" recordCount="0"/>
									<ScoreDistribution value="9" recordCount="0"/>
								</Node>
							</Node>
							<Node>
								<SimplePredicate field="double(feature_14)" operator="lessOrEqual" value="0.26130208373069763"/>
								<Node score="4" recordCount="1">
									<SimplePredicate field="double(feature_35)" operator="lessOrEqual" value="0.35640034079551697"/>
									<ScoreDistribution value="0" recordCount="0"/>
									<ScoreDistribution value="1" recordCount="0"/>
									<ScoreDistribution value="10" recordCount="0"/>
									<ScoreDistribution value="2" recordCount="0"/>
									<ScoreDistribution value="3" recordCount="0"/>
									<ScoreDistribution value="4" recordCount="1"/>
									<ScoreDistribution value="5" recordCount="0"/>
									<ScoreDistribution value="6" recordCount="0"/>
									<ScoreDistribution value="7" recordCount="0"/>
									<ScoreDistribution value="8" recordCount="0"/>
									<ScoreDistribution value="9" recordCount="0"/>
								</Node>
								<Node score="5" recordCount="1">
									<True/>
									<ScoreDistribution value="0" recordCount="0"/>
									<ScoreDistribution value="1" recordCount="0"/>
									<ScoreDistribution value="10" recordCount="0"/>
									<ScoreDistribution value="2" recordCount="0"/>
									<ScoreDistribution value="3" recordCount="0"/>
									<ScoreDistribution value="4" recordCount="0"/>
									<ScoreDistribution value="5" recordCount="1"/>
									<ScoreDistribution value="6" recordCount="0"/>
									<ScoreDistribution value="7" recordCount="0"/>
									<ScoreDistribution value="8" recordCount="0"/>
									<ScoreDistribution value="9" recordCount="0"/>
								</Node>
							</Node>
							<Node score="4" recordCount="1">
								<True/>
								<ScoreDistribution value="0" recordCount="0"/>
								<ScoreDistribution value="1" recordCount="0"/>
								<ScoreDistribution value="10" recordCount="0"/>
								<ScoreDistribution value="2" recordCount="0"/>
								<ScoreDistribution value="3" recordCount="0"/>
								<ScoreDistribution value="4" recordCount="1"/>
								<ScoreDistribution value="5" recordCount="0"/>
								<ScoreDistribution value="6" recordCount="0"/>
								<ScoreDistribution value="7" recordCount="0"/>
								<ScoreDistribution value="8" recordCount="0"/>
								<ScoreDistribution value="9" recordCount="0"/>
							</Node>
						</Node>
						<Node score="8" recordCount="1">
							<SimplePredicate field="double(feature_29)" operator="lessOrEqual" value="0.20892179012298584"/>
							<ScoreDistribution value="0" recordCount="0"/>
							<ScoreDistribution value="1" recordCount="0"/>
							<ScoreDistribution value="10" recordCount="0"/>
							<ScoreDistribution value="2" recordCount="0"/>
							<ScoreDistribution value="3" recordCount="0"/>
							<ScoreDistribution value="4" recordCount="0"/>
							<ScoreDistribution value="5" recordCount="0"/>
							<ScoreDistribution value="6" recordCount="0"/>
							<ScoreDistribution value="7" recordCount="0"/>
							<ScoreDistribution value="8" recordCount="1"/>
							<ScoreDistribution value="9" recordCount="0"/>
						</Node>
						<Node score="1" recordCount="1">
							<True/>
							<ScoreDistribution value="0" recordCount="0"/>
							<ScoreDistribution value="1" recordCount="1"/>
							<ScoreDistribution value="10" recordCount="0"/>
							<ScoreDistribution value="2" recordCount="0"/>
							<ScoreDistribution value="3" recordCount="0"/>
							<ScoreDistribution value="4" recordCount="0"/>
							<ScoreDistribution value="5" recordCount="0"/>
							<ScoreDistribution value="6" recordCount="0"/>
							<ScoreDistribution value="7" recordCount="0"/>
							<ScoreDistribution value="8" recordCount="0"/>
							<ScoreDistribution value="9" recordCount="0"/>
						</Node>
					</Node>
				</TreeModel>
			</Segment>
			<Segment id="7">
				<True/>
				<TreeModel functionName="classification" missingValueStrategy="nullPrediction">
					<MiningSchema>
						<MiningField name="double(feature_27)"/>
						<MiningField name="double(feature_6)"/>
						<MiningField name="double(feature_8)"/>
						<MiningField name="double(feature_28)"/>
						<MiningField name="double(feature_9)"/>
						<MiningField name="double(feature_31)"/>
						<MiningField name="double(feature_41)"/>
						<MiningField name="double(feature_1)"/>
						<MiningField name="double(feature_13)"/>
						<MiningField name="double(feature_35)"/>
						<MiningField name="double(feature_23)"/>
						<MiningField name="double(feature_4)"/>
						<MiningField name="double(feature_12)"/>
						<MiningField name="double(feature_21)"/>
						<MiningField name="double(feature_16)"/>
						<MiningField name="double(feature_2)"/>
						<MiningField name="double(feature_24)"/>
					</MiningSchema>
					<Node>
						<True/>
						<Node>
							<SimplePredicate field="double(feature_31)" operator="lessOrEqual" value="0.09551645815372467"/>
							<Node>
								<SimplePredicate field="double(feature_35)" operator="lessOrEqual" value="0.26659615337848663"/>
								<Node score="0" recordCount="1">
									<SimplePredicate field="double(feature_12)" operator="lessOrEqual" value="0.13241060078144073"/>
									<ScoreDistribution value="0" recordCount="1"/>
									<ScoreDistribution value="1" recordCount="0"/>
									<ScoreDistribution value="10" recordCount="0"/>
									<ScoreDistribution value="2" recordCount="0"/>
									<ScoreDistribution value="3" recordCount="0"/>
									<ScoreDistribution value="4" recordCount="0"/>
									<ScoreDistribution value="5" recordCount="0"/>
									<ScoreDistribution value="6" recordCount="0"/>
									<ScoreDistribution value="7" recordCount="0"/>
